digraph Tree {
node [shape=box, style="filled, rounded", color="black", fontname="helvetica"] ;
edge [fontname="helvetica"] ;
0 [label="goal_distance_x <= -0.5\ngini = 0.66\nsamples = 2000\nvalue = [486, 87, 491, 936]\nclass = LEFT", fillcolor="#f3c5f7"] ;
1 [label="can_move_left <= 0.5\ngini = 0.09\nsamples = 970\nvalue = [18, 2, 25, 925]\nclass = LEFT", fillcolor="#d942e6"] ;
0 -> 1 [labeldistance=2.5, labelangle=45, headlabel="True"] ;
2 [label="goal_distance_y <= -1.5\ngini = 0.482\nsamples = 28\nvalue = [9, 1, 18, 0]\nclass = DOWN", fillcolor="#a1d1f3"] ;
1 -> 2 ;
3 [label="gini = 0.0\nsamples = 7\nvalue = [7, 0, 0, 0]\nclass = UP", fillcolor="#e58139"] ;
2 -> 3 ;
4 [label="can_move_down <= 0.5\ngini = 0.254\nsamples = 21\nvalue = [2, 1, 18, 0]\nclass = DOWN", fillcolor="#58ace9"] ;
2 -> 4 ;
5 [label="goal_distance_x <= -11.5\ngini = 0.444\nsamples = 3\nvalue = [2, 1, 0, 0]\nclass = UP", fillcolor="#f2c09c"] ;
4 -> 5 ;
6 [label="gini = 0.0\nsamples = 2\nvalue = [2, 0, 0, 0]\nclass = UP", fillcolor="#e58139"] ;
5 -> 6 ;
7 [label="gini = 0.0\nsamples = 1\nvalue = [0, 1, 0, 0]\nclass = RIGHT", fillcolor="#47e539"] ;
5 -> 7 ;
8 [label="gini = 0.0\nsamples = 18\nvalue = [0, 0, 18, 0]\nclass = DOWN", fillcolor="#399de5"] ;
4 -> 8 ;
9 [label="goal_distance_x <= -1.5\ngini = 0.036\nsamples = 942\nvalue = [9, 1, 7, 925]\nclass = LEFT", fillcolor="#d83de5"] ;
1 -> 9 ;
10 [label="goal_distance_x <= -5.5\ngini = 0.021\nsamples = 870\nvalue = [6, 0, 3, 861]\nclass = LEFT", fillcolor="#d73be5"] ;
9 -> 10 ;
11 [label="closest_ghost_direction_x <= 4.5\ngini = 0.003\nsamples = 612\nvalue = [1, 0, 0, 611]\nclass = LEFT", fillcolor="#d739e5"] ;
10 -> 11 ;
12 [label="gini = 0.0\nsamples = 535\nvalue = [0, 0, 0, 535]\nclass = LEFT", fillcolor="#d739e5"] ;
11 -> 12 ;
13 [label="gini = 0.026\nsamples = 77\nvalue = [1, 0, 0, 76]\nclass = LEFT", fillcolor="#d83ce5"] ;
11 -> 13 ;
14 [label="goal_distance_y <= -2.5\ngini = 0.061\nsamples = 258\nvalue = [5, 0, 3, 250]\nclass = LEFT", fillcolor="#d83fe6"] ;
10 -> 14 ;
15 [label="gini = 0.107\nsamples = 88\nvalue = [5, 0, 0, 83]\nclass = LEFT", fillcolor="#d945e7"] ;
14 -> 15 ;
16 [label="gini = 0.035\nsamples = 170\nvalue = [0, 0, 3, 167]\nclass = LEFT", fillcolor="#d83de5"] ;
14 -> 16 ;
17 [label="closest_ghost_direction_y <= 11.5\ngini = 0.205\nsamples = 72\nvalue = [3, 1, 4, 64]\nclass = LEFT", fillcolor="#dc50e8"] ;
9 -> 17 ;
18 [label="closest_ghost_direction_x <= 12.5\ngini = 0.163\nsamples = 69\nvalue = [3.0, 1.0, 2.0, 63.0]\nclass = LEFT", fillcolor="#db4be7"] ;
17 -> 18 ;
19 [label="gini = 0.118\nsamples = 65\nvalue = [1, 1, 2, 61]\nclass = LEFT", fillcolor="#da46e7"] ;
18 -> 19 ;
20 [label="gini = 0.5\nsamples = 4\nvalue = [2, 0, 0, 2]\nclass = UP", fillcolor="#ffffff"] ;
18 -> 20 ;
21 [label="goal_distance_y <= 6.5\ngini = 0.444\nsamples = 3\nvalue = [0, 0, 2, 1]\nclass = DOWN", fillcolor="#9ccef2"] ;
17 -> 21 ;
22 [label="gini = 0.0\nsamples = 1\nvalue = [0, 0, 0, 1]\nclass = LEFT", fillcolor="#d739e5"] ;
21 -> 22 ;
23 [label="gini = 0.0\nsamples = 2\nvalue = [0, 0, 2, 0]\nclass = DOWN", fillcolor="#399de5"] ;
21 -> 23 ;
24 [label="goal_distance_y <= -0.5\ngini = 0.582\nsamples = 1030\nvalue = [468, 85, 466, 11]\nclass = UP", fillcolor="#fffffe"] ;
0 -> 24 [labeldistance=2.5, labelangle=-45, headlabel="False"] ;
25 [label="can_move_up <= 0.5\ngini = 0.115\nsamples = 497\nvalue = [467, 22, 2, 6]\nclass = UP", fillcolor="#e78946"] ;
24 -> 25 ;
26 [label="goal_distance_x <= 1.5\ngini = 0.42\nsamples = 20\nvalue = [0, 14, 0, 6]\nclass = RIGHT", fillcolor="#96f08e"] ;
25 -> 26 ;
27 [label="gini = 0.0\nsamples = 4\nvalue = [0, 0, 0, 4]\nclass = LEFT", fillcolor="#d739e5"] ;
26 -> 27 ;
28 [label="can_move_right <= 0.5\ngini = 0.219\nsamples = 16\nvalue = [0, 14, 0, 2]\nclass = RIGHT", fillcolor="#61e955"] ;
26 -> 28 ;
29 [label="gini = 0.0\nsamples = 1\nvalue = [0, 0, 0, 1]\nclass = LEFT", fillcolor="#d739e5"] ;
28 -> 29 ;
30 [label="gini = 0.124\nsamples = 15\nvalue = [0, 14, 0, 1]\nclass = RIGHT", fillcolor="#54e747"] ;
28 -> 30 ;
31 [label="can_move_right <= 0.5\ngini = 0.041\nsamples = 477\nvalue = [467, 8, 2, 0]\nclass = UP", fillcolor="#e6843d"] ;
25 -> 31 ;
32 [label="goal_distance_x <= 2.5\ngini = 0.375\nsamples = 8\nvalue = [6, 0, 2, 0]\nclass = UP", fillcolor="#eeab7b"] ;
31 -> 32 ;
33 [label="gini = 0.0\nsamples = 5\nvalue = [5, 0, 0, 0]\nclass = UP", fillcolor="#e58139"] ;
32 -> 33 ;
34 [label="gini = 0.444\nsamples = 3\nvalue = [1, 0, 2, 0]\nclass = DOWN", fillcolor="#9ccef2"] ;
32 -> 34 ;
35 [label="goal_distance_x <= 18.5\ngini = 0.034\nsamples = 469\nvalue = [461, 8, 0, 0]\nclass = UP", fillcolor="#e5833c"] ;
31 -> 35 ;
36 [label="gini = 0.014\nsamples = 416\nvalue = [413, 3, 0, 0]\nclass = UP", fillcolor="#e5823a"] ;
35 -> 36 ;
37 [label="gini = 0.171\nsamples = 53\nvalue = [48, 5, 0, 0]\nclass = UP", fillcolor="#e88e4e"] ;
35 -> 37 ;
38 [label="goal_distance_y <= 0.5\ngini = 0.228\nsamples = 533\nvalue = [1.0, 63.0, 464.0, 5.0]\nclass = DOWN", fillcolor="#56abe9"] ;
24 -> 38 ;
39 [label="gini = 0.0\nsamples = 36\nvalue = [0, 36, 0, 0]\nclass = RIGHT", fillcolor="#47e539"] ;
38 -> 39 ;
40 [label="can_move_down <= 0.5\ngini = 0.125\nsamples = 497\nvalue = [1, 27, 464, 5]\nclass = DOWN", fillcolor="#47a4e7"] ;
38 -> 40 ;
41 [label="can_move_right <= 0.5\ngini = 0.405\nsamples = 23\nvalue = [1, 17, 0, 5]\nclass = RIGHT", fillcolor="#84ee7b"] ;
40 -> 41 ;
42 [label="gini = 0.444\nsamples = 3\nvalue = [1, 0, 0, 2]\nclass = LEFT", fillcolor="#eb9cf2"] ;
41 -> 42 ;
43 [label="gini = 0.255\nsamples = 20\nvalue = [0, 17, 0, 3]\nclass = RIGHT", fillcolor="#67ea5c"] ;
41 -> 43 ;
44 [label="goal_distance_x <= 17.5\ngini = 0.041\nsamples = 474\nvalue = [0, 10, 464, 0]\nclass = DOWN", fillcolor="#3d9fe6"] ;
40 -> 44 ;
45 [label="gini = 0.014\nsamples = 414\nvalue = [0, 3, 411, 0]\nclass = DOWN", fillcolor="#3a9ee5"] ;
44 -> 45 ;
46 [label="gini = 0.206\nsamples = 60\nvalue = [0, 7, 53, 0]\nclass = DOWN", fillcolor="#53aae8"] ;
44 -> 46 ;
}